<?xml version="1.0"?>
<opencv_storage>
<my_svm type_id="opencv-ml-svm">
  <svm_type>C_SVC</svm_type>
  <kernel><type>LINEAR</type></kernel>
  <C>1.</C>
  <term_criteria><epsilon>2.2204460492503131e-016</epsilon>
    <iterations>1000</iterations></term_criteria>
  <var_all>531</var_all>
  <var_count>531</var_count>
  <class_count>2</class_count>
  <class_labels type_id="opencv-matrix">
    <rows>1</rows>
    <cols>2</cols>
    <dt>i</dt>
    <data>
      1 2</data></class_labels>
  <sv_total>1</sv_total>
  <support_vectors>
    <_>
      -1.30000010e-001 2.92500019e-001 3.99999991e-002 1.02499999e-001
      -4.99999942e-003 -9.99999978e-003 1.72499999e-001 8.25000033e-002
      9.99999978e-003 0. 1.49999997e-002 0. 0. -1.24999993e-002 0.
      5.74999973e-002 7.50000030e-003 -7.75000006e-002 -4.99999989e-003
      -3.99999991e-002 -7.49999983e-003 -2.50000134e-003
      -1.24999993e-002 2.49999994e-003 -1.99999996e-002 2.49999994e-003
      -3.24999988e-002 -2.24999990e-002 -1.49999987e-002
      -5.49999960e-002 -1.00000001e-001 -6.25000000e-002
      -3.24999988e-002 1.64999992e-001 1.24999993e-002 9.99999978e-003
      -1.24999993e-002 -2.24999990e-002 4.25000004e-002 2.49999994e-003
      2.74999980e-002 -1.24999993e-002 1.24999993e-002 -7.99999982e-002
      -1.99999996e-002 -9.99999978e-003 -2.49999994e-003 0.
      -2.49999994e-003 2.49999994e-003 2.49999994e-003 -4.99999989e-003
      -9.99999791e-003 -3.50000001e-002 -3.24999988e-002 4.99999989e-003
      -7.49999937e-003 -1.24999993e-002 -1.59999996e-001
      -5.25000021e-002 1.69999987e-001 3.75000015e-002 -9.99999978e-003
      -1.49999997e-002 2.49999994e-003 4.99999970e-002 -1.50000006e-002
      1.49999987e-002 2.49999994e-003 2.24999990e-002 7.49999983e-003 0.
      -2.74999999e-002 0. -8.50000009e-002 -2.49999948e-003
      5.25000021e-002 -2.49999994e-003 -1.25000000e-001 -9.99999978e-003
      -1.99999988e-001 -2.99999993e-002 0. 9.99999978e-003
      -2.49999994e-003 -9.99999940e-002 -7.49999983e-003
      -3.75000015e-002 0. -5.00000082e-003 6.49999976e-002
      -7.49999844e-003 -1.22499995e-001 -2.49999994e-003
      -1.75000001e-002 0. -5.00000082e-003 3.12500000e-001
      7.49999983e-003 -2.49999985e-002 -2.49999994e-003 4.99999896e-003
      -2.74999980e-002 2.37499997e-001 0. 7.49999983e-003 0. 0.
      -2.49999994e-003 0. 4.99999989e-003 -1.44999996e-001
      3.24999988e-002 2.50000041e-003 -9.99999978e-003 0.
      -4.99999942e-003 5.49999997e-002 -1.19999997e-001 2.25000009e-001
      -1.99999996e-002 9.99999791e-003 3.00000012e-002 2.49999994e-003
      -5.00000035e-003 2.99999993e-002 7.50000076e-003 0.
      -1.75000001e-002 -1.49999997e-002 2.49999994e-003 1.49999997e-002
      7.49999983e-003 -3.75000015e-002 0. -7.99999982e-002
      -2.49999994e-003 -1.24999993e-002 -4.99999989e-003 1.99999996e-002
      -9.99999978e-003 2.49999994e-003 1.24999993e-002 2.49999994e-003
      -5.74999973e-002 -2.49999994e-003 1.49999997e-002 1.49999997e-002
      -5.24999984e-002 -1.22500002e-001 1.74999982e-002 -1.74999982e-002
      -2.49999994e-003 -1.74999982e-002 0. 2.24999990e-002
      1.75000001e-002 -7.49999983e-003 0. -4.99999989e-003
      2.99999993e-002 2.25000009e-002 5.00000268e-003 -4.99999942e-003
      4.99999989e-003 0. 4.99999989e-003 1.49999997e-002 0.
      1.24999993e-002 6.25000149e-002 -9.74999964e-002 4.99999989e-003
      -7.49999983e-003 1.24999993e-002 7.49999983e-003 8.24999958e-002
      -3.29999983e-001 3.02499980e-001 7.49999983e-003 9.31322575e-010
      3.99999991e-002 0. 5.00000007e-002 9.52499986e-001
      -7.49999983e-003 0. 2.49999994e-003 0. 0. -2.24999990e-002
      2.49999994e-003 -9.74999964e-002 0. -2.49999985e-002 0.
      -1.94999993e-001 -7.49999983e-003 -2.12499991e-001
      -9.99999978e-003 0. -1.49999997e-002 -2.49999994e-003
      -1.74999997e-001 -2.74999999e-002 -6.25000000e-002
      -1.49999997e-002 -3.24999988e-002 2.07499996e-001 4.50000018e-002
      6.24999925e-002 -7.49999983e-003 2.49999994e-003 -2.49999994e-003
      2.49999994e-003 6.49999976e-002 2.24999990e-002 6.24999963e-002
      -4.99999989e-003 4.99999989e-003 -8.50000009e-002 -7.00000003e-002
      -7.49999983e-003 2.49999994e-003 0. -9.99999978e-003
      2.49999994e-003 2.49999994e-003 7.49999937e-003 -2.27500007e-001
      -5.49999960e-002 -1.99999996e-002 -4.99999989e-003
      -4.99999989e-003 -2.99999993e-002 -8.00000057e-002 4.49999943e-002
      1.74999908e-002 -1.24999993e-002 2.74999961e-002 -4.99999989e-003
      2.49999994e-003 -8.24999958e-002 -4.49999981e-002 2.49999994e-003
      2.49999994e-003 7.49999983e-003 -2.49999994e-003 2.49999994e-003
      4.65661287e-010 0. -6.99999928e-002 -1.99999996e-002
      4.74999957e-002 2.49999994e-003 1.14999995e-001 -1.99999996e-002
      -4.99999970e-002 4.99999942e-003 2.49999994e-003 9.99999978e-003
      2.49999994e-003 -9.00000036e-002 -9.99999978e-003 -9.99999978e-003
      2.49999985e-002 -2.00000014e-002 5.00000268e-003 -4.99999803e-003
      4.99999989e-003 -9.99999978e-003 -4.99999989e-003 -1.24999993e-002
      2.24999990e-002 3.99999991e-002 4.99999989e-003 -7.49999890e-003
      -1.75000001e-002 -2.99999993e-002 4.74999957e-002 9.25000012e-002
      -2.49999994e-003 1.24999993e-002 -2.49999994e-003 -4.99999989e-003
      -2.49999994e-003 2.49999994e-003 -9.99999978e-003 -2.24999972e-002
      3.24999988e-002 1.74999982e-002 1.24999993e-002 9.99999978e-003
      -4.99999989e-003 -4.74999920e-002 -3.75000000e-001 7.49998912e-003
      -1.99999996e-002 -4.50000018e-002 -2.99999993e-002 2.49999994e-003
      -2.49999855e-003 1.09999999e-001 -7.49999844e-003 2.49999994e-003
      -9.99999978e-003 -2.49999994e-003 0. -1.75000001e-002
      -2.49999994e-003 -6.74999952e-002 7.49999983e-003 -6.24999963e-002
      -2.49999994e-003 -1.42499983e-001 -1.49999997e-002
      -1.22499995e-001 -1.49999997e-002 2.49999994e-003 -1.99999996e-002
      -4.99999989e-003 7.92499959e-001 -2.49999994e-003 -3.24999988e-002
      5.74999973e-002 -2.24999972e-002 -2.74999999e-002 -1.99999996e-002
      3.50000001e-002 0. -7.49999983e-003 -2.49999994e-003
      -2.49999994e-003 -7.00000003e-002 -1.49999997e-002
      -9.99999978e-003 0. -7.49999983e-003 5.49999960e-002
      -1.32499993e-001 -1.24999993e-002 -2.49999994e-003 0.
      -2.49999994e-003 -2.49999994e-003 -4.99999989e-003 4.99999989e-003
      3.27499986e-001 -9.99999698e-003 -1.49999987e-002 0.
      -2.99999993e-002 -7.50000030e-003 0. -1.67500019e-001
      6.17500007e-001 -2.99999993e-002 1.37499988e-001 -4.24999967e-002
      -2.49999994e-003 1.25000000e-001 7.59999990e-001 -2.49999985e-002
      0. 1.24999993e-002 -7.49999983e-003 0. 0. 0. 1.49999987e-002
      7.50000030e-003 2.50000088e-003 -2.49999994e-003 -7.75000006e-002
      0. 1.24999993e-002 -1.24999993e-002 0. -4.99999989e-003
      -2.49999994e-003 -1.07499994e-001 0. -9.99999978e-003
      -5.00000007e-002 -8.50000009e-002 -1.67500004e-001
      -7.99999982e-002 -1.27499998e-001 4.99999989e-003 2.99999993e-002
      9.99999978e-003 -9.99999978e-003 -2.99999993e-002 -1.24999993e-002
      -1.99999996e-002 -2.49999994e-003 3.24999988e-002 -6.74999952e-002
      -3.24999988e-002 -7.49999937e-003 -7.49999983e-003
      -4.99999989e-003 -2.49999994e-003 -4.99999989e-003 0.
      1.75000001e-002 -3.44999999e-001 -1.04999997e-001 -9.99999978e-003
      0. -9.99999978e-003 -1.24999993e-002 -9.74999964e-002
      -3.00000086e-002 -1.50000006e-001 7.49999890e-003 8.74999985e-002
      3.24999988e-002 -7.49999983e-003 2.27499992e-001 6.24999963e-002
      -2.49999855e-003 -4.99999989e-003 8.50000009e-002 4.99999989e-003
      0. 1.50000006e-002 -1.49999997e-002 2.29999989e-001
      2.50000004e-002 -7.50000030e-002 -7.49999983e-003 -1.25000000e-001
      -1.49999997e-002 1.52499989e-001 -7.49999983e-003 -2.49999994e-003
      -2.74999999e-002 0. -3.49999964e-002 -2.49999994e-003
      -4.74999994e-002 -1.49999997e-002 -5.49999997e-002 3.24999988e-002
      -1.24999993e-002 -1.99999977e-002 2.49999994e-003 -1.50000006e-002
      0. -9.99999978e-003 1.49999991e-001 -9.99999978e-003
      -1.49999987e-002 0. 5.00000082e-003 -4.75000031e-002
      -2.74999999e-002 -2.50000004e-002 -4.99999989e-003
      -2.49999994e-003 0. -1.75000001e-002 -4.99999989e-003
      -2.49999985e-002 -4.74999957e-002 -4.24999967e-002
      -9.99999978e-003 -7.49999983e-003 -1.99999996e-002
      -1.99999996e-002 -1.10000007e-001 -2.29999989e-001
      -1.40000001e-001 2.49999994e-003 -7.49999955e-002 0.
      -2.49999994e-003 -3.99999991e-002 -3.99999991e-002
      -1.99999996e-002 0. -4.99999989e-003 -4.99999989e-003
      -2.49999994e-003 -4.74999994e-002 -9.99999978e-003
      -2.99999993e-002 -2.74999999e-002 -5.49999997e-002
      -1.49999997e-002 1.24999955e-002 -1.49999997e-002 -5.00000007e-002
      -2.50000004e-002 2.49999994e-003 -9.99999978e-003 0.
      5.29999971e-001 1.49999997e-002 -5.49999997e-002 -1.75000001e-002
      2.99999993e-002 1.42499998e-001 4.99999989e-003 4.99999989e-003
      -1.24999993e-002 -4.74999994e-002 -9.99999978e-003 1.24999993e-002
      4.50000018e-002 0. 0. -2.49999994e-003 -9.99999978e-003
      5.74999973e-002 9.00000036e-002 4.99999989e-003 4.99999989e-003 0.
      0. 0. 0. -1.24999993e-002 1.30000010e-001 -4.99999896e-003
      -1.49999987e-002 -1.24999993e-002 3.24999988e-002 -3.50000001e-002
      -4.24999967e-002</_></support_vectors>
  <decision_functions>
    <_>
      <sv_count>1</sv_count>
      <rho>4.2875933647155762e-001</rho>
      <alpha>
        1.</alpha>
      <index>
        0</index></_></decision_functions></my_svm>
</opencv_storage>
